digraph Tree {
node [shape=box, style="filled, rounded", color="black", fontname=helvetica] ;
edge [fontname=helvetica] ;
0 [label="x1 <= 1.0\nentropy = 0.9\nsamples = 900\nvalue = [592, 308]\nclass = -1", fillcolor="#f3c3a0"] ;
1 [label="x1 <= -1.0\nentropy = 1.0\nsamples = 750\nvalue = [442, 308]\nclass = -1", fillcolor="#f7d9c3"] ;
0 -> 1 [labeldistance=2.5, labelangle=45, headlabel="True"] ;
3 [label="entropy = 0.0\nsamples = 147\nvalue = [147, 0]\nclass = -1", fillcolor="#e58139"] ;
1 -> 3 ;
4 [label="x2 <= 1.0\nentropy = 1.0\nsamples = 603\nvalue = [295, 308]\nclass = 1", fillcolor="#f7fbfe"] ;
1 -> 4 ;
5 [label="x2 <= -0.8\nentropy = 1.0\nsamples = 504\nvalue = [196, 308]\nclass = 1", fillcolor="#b7dbf6"] ;
4 -> 5 ;
7 [label="x2 <= -1.0\nentropy = 0.4\nsamples = 126\nvalue = [115, 11]\nclass = -1", fillcolor="#e78d4c"] ;
5 -> 7 ;
17 [label="entropy = 0.0\nsamples = 89\nvalue = [89, 0]\nclass = -1", fillcolor="#e58139"] ;
7 -> 17 ;
18 [label="x1 <= 0.1\nentropy = 0.9\nsamples = 37\nvalue = [26, 11]\nclass = -1", fillcolor="#f0b68d"] ;
7 -> 18 ;
19 [label="entropy = 0.0\nsamples = 25\nvalue = [25, 0]\nclass = -1", fillcolor="#e58139"] ;
18 -> 19 ;
20 [label="entropy = 0.4\nsamples = 12\nvalue = [1, 11]\nclass = 1", fillcolor="#4ba6e7"] ;
18 -> 20 ;
8 [label="x1 <= 0.6\nentropy = 0.7\nsamples = 378\nvalue = [81, 297]\nclass = 1", fillcolor="#6fb8ec"] ;
5 -> 8 ;
9 [label="x1 <= -0.7\nentropy = 0.6\nsamples = 314\nvalue = [48, 266]\nclass = 1", fillcolor="#5dafea"] ;
8 -> 9 ;
13 [label="x2 <= -0.1\nentropy = 1.0\nsamples = 34\nvalue = [18, 16]\nclass = -1", fillcolor="#fcf1e9"] ;
9 -> 13 ;
15 [label="entropy = 0.0\nsamples = 16\nvalue = [16, 0]\nclass = -1", fillcolor="#e58139"] ;
13 -> 15 ;
16 [label="entropy = 0.5\nsamples = 18\nvalue = [2, 16]\nclass = 1", fillcolor="#52a9e8"] ;
13 -> 16 ;
14 [label="x2 <= 0.8\nentropy = 0.5\nsamples = 280\nvalue = [30, 250]\nclass = 1", fillcolor="#51a9e8"] ;
9 -> 14 ;
21 [label="entropy = 0.4\nsamples = 253\nvalue = [17, 236]\nclass = 1", fillcolor="#47a4e7"] ;
14 -> 21 ;
22 [label="entropy = 1.0\nsamples = 27\nvalue = [13, 14]\nclass = 1", fillcolor="#f1f8fd"] ;
14 -> 22 ;
10 [label="x2 <= 0.0\nentropy = 1.0\nsamples = 64\nvalue = [33, 31]\nclass = -1", fillcolor="#fdf7f3"] ;
8 -> 10 ;
11 [label="entropy = 0.4\nsamples = 33\nvalue = [3, 30]\nclass = 1", fillcolor="#4da7e8"] ;
10 -> 11 ;
12 [label="entropy = 0.2\nsamples = 31\nvalue = [30, 1]\nclass = -1", fillcolor="#e68540"] ;
10 -> 12 ;
6 [label="entropy = 0.0\nsamples = 99\nvalue = [99, 0]\nclass = -1", fillcolor="#e58139"] ;
4 -> 6 ;
2 [label="entropy = 0.0\nsamples = 150\nvalue = [150, 0]\nclass = -1", fillcolor="#e58139"] ;
0 -> 2 [labeldistance=2.5, labelangle=-45, headlabel="False"] ;
}